digraph Tree {
node [shape=box, style="filled, rounded", color="black", fontname="helvetica"] ;
edge [fontname="helvetica"] ;
0 [label="followers_count <= 88.0\ngini = 0.237\nsamples = 459\nvalue = [63, 396]\nclass = real", fillcolor="#58ade9"] ;
1 [label="statuses_count <= 2.5\ngini = 0.073\nsamples = 265\nvalue = [10, 255]\nclass = real", fillcolor="#41a1e6"] ;
0 -> 1 [labeldistance=2.5, labelangle=45, headlabel="True"] ;
2 [label="gini = 0.0\nsamples = 7\nvalue = [7, 0]\nclass = fake", fillcolor="#e58139"] ;
1 -> 2 ;
3 [label="statuses_count <= 11.5\ngini = 0.023\nsamples = 258\nvalue = [3, 255]\nclass = real", fillcolor="#3b9ee5"] ;
1 -> 3 ;
4 [label="gini = 0.32\nsamples = 5\nvalue = [1, 4]\nclass = real", fillcolor="#6ab6ec"] ;
3 -> 4 ;
5 [label="statuses_count <= 5631.5\ngini = 0.016\nsamples = 253\nvalue = [2, 251]\nclass = real", fillcolor="#3b9ee5"] ;
3 -> 5 ;
6 [label="followers_count <= 54.0\ngini = 0.008\nsamples = 248\nvalue = [1, 247]\nclass = real", fillcolor="#3a9de5"] ;
5 -> 6 ;
7 [label="gini = 0.0\nsamples = 231\nvalue = [0, 231]\nclass = real", fillcolor="#399de5"] ;
6 -> 7 ;
8 [label="gini = 0.111\nsamples = 17\nvalue = [1, 16]\nclass = real", fillcolor="#45a3e7"] ;
6 -> 8 ;
9 [label="gini = 0.32\nsamples = 5\nvalue = [1, 4]\nclass = real", fillcolor="#6ab6ec"] ;
5 -> 9 ;
10 [label="friends_count <= 584.5\ngini = 0.397\nsamples = 194\nvalue = [53, 141]\nclass = real", fillcolor="#83c2ef"] ;
0 -> 10 [labeldistance=2.5, labelangle=-45, headlabel="False"] ;
11 [label="friends_count <= 54.5\ngini = 0.472\nsamples = 126\nvalue = [48, 78]\nclass = real", fillcolor="#b3d9f5"] ;
10 -> 11 ;
12 [label="statuses_count <= 5579.5\ngini = 0.051\nsamples = 38\nvalue = [1, 37]\nclass = real", fillcolor="#3ea0e6"] ;
11 -> 12 ;
13 [label="statuses_count <= 4815.0\ngini = 0.165\nsamples = 11\nvalue = [1, 10]\nclass = real", fillcolor="#4da7e8"] ;
12 -> 13 ;
14 [label="gini = 0.0\nsamples = 6\nvalue = [0, 6]\nclass = real", fillcolor="#399de5"] ;
13 -> 14 ;
15 [label="gini = 0.32\nsamples = 5\nvalue = [1, 4]\nclass = real", fillcolor="#6ab6ec"] ;
13 -> 15 ;
16 [label="gini = 0.0\nsamples = 27\nvalue = [0, 27]\nclass = real", fillcolor="#399de5"] ;
12 -> 16 ;
17 [label="followers_count <= 224.0\ngini = 0.498\nsamples = 88\nvalue = [47, 41]\nclass = fake", fillcolor="#fcefe6"] ;
11 -> 17 ;
18 [label="friends_count <= 150.5\ngini = 0.476\nsamples = 41\nvalue = [16, 25]\nclass = real", fillcolor="#b8dcf6"] ;
17 -> 18 ;
19 [label="gini = 0.457\nsamples = 17\nvalue = [11, 6]\nclass = fake", fillcolor="#f3c6a5"] ;
18 -> 19 ;
20 [label="gini = 0.33\nsamples = 24\nvalue = [5, 19]\nclass = real", fillcolor="#6db7ec"] ;
18 -> 20 ;
21 [label="friends_count <= 246.0\ngini = 0.449\nsamples = 47\nvalue = [31, 16]\nclass = fake", fillcolor="#f2c29f"] ;
17 -> 21 ;
22 [label="gini = 0.266\nsamples = 19\nvalue = [16, 3]\nclass = fake", fillcolor="#ea995e"] ;
21 -> 22 ;
23 [label="gini = 0.497\nsamples = 28\nvalue = [15, 13]\nclass = fake", fillcolor="#fceee5"] ;
21 -> 23 ;
24 [label="statuses_count <= 1646.5\ngini = 0.136\nsamples = 68\nvalue = [5, 63]\nclass = real", fillcolor="#49a5e7"] ;
10 -> 24 ;
25 [label="gini = 0.375\nsamples = 8\nvalue = [2, 6]\nclass = real", fillcolor="#7bbeee"] ;
24 -> 25 ;
26 [label="friends_count <= 1379.0\ngini = 0.095\nsamples = 60\nvalue = [3, 57]\nclass = real", fillcolor="#43a2e6"] ;
24 -> 26 ;
27 [label="friends_count <= 1074.0\ngini = 0.204\nsamples = 26\nvalue = [3, 23]\nclass = real", fillcolor="#53aae8"] ;
26 -> 27 ;
28 [label="gini = 0.095\nsamples = 20\nvalue = [1, 19]\nclass = real", fillcolor="#43a2e6"] ;
27 -> 28 ;
29 [label="gini = 0.444\nsamples = 6\nvalue = [2, 4]\nclass = real", fillcolor="#9ccef2"] ;
27 -> 29 ;
30 [label="gini = 0.0\nsamples = 34\nvalue = [0, 34]\nclass = real", fillcolor="#399de5"] ;
26 -> 30 ;
}