digraph Tree {
node [shape=box, style="filled, rounded", color="black", fontname="helvetica"] ;
edge [fontname="helvetica"] ;
0 [label="followers_count <= 82.5\ngini = 0.258\nsamples = 591\nvalue = [90, 501]\nclass = fake", fillcolor="#5dafea"] ;
1 [label="statuses_count <= 2.5\ngini = 0.085\nsamples = 337\nvalue = [15, 322]\nclass = fake", fillcolor="#42a2e6"] ;
0 -> 1 [labeldistance=2.5, labelangle=45, headlabel="True"] ;
2 [label="gini = 0.0\nsamples = 9\nvalue = [9, 0]\nclass = real", fillcolor="#e58139"] ;
1 -> 2 ;
3 [label="statuses_count <= 11.5\ngini = 0.036\nsamples = 328\nvalue = [6, 322]\nclass = fake", fillcolor="#3d9fe5"] ;
1 -> 3 ;
4 [label="gini = 0.346\nsamples = 9\nvalue = [2, 7]\nclass = fake", fillcolor="#72b9ec"] ;
3 -> 4 ;
5 [label="followers_count <= 47.5\ngini = 0.025\nsamples = 319\nvalue = [4, 315]\nclass = fake", fillcolor="#3c9ee5"] ;
3 -> 5 ;
6 [label="followers_count <= 0.5\ngini = 0.007\nsamples = 287\nvalue = [1, 286]\nclass = fake", fillcolor="#3a9de5"] ;
5 -> 6 ;
7 [label="gini = 0.198\nsamples = 9\nvalue = [1, 8]\nclass = fake", fillcolor="#52a9e8"] ;
6 -> 7 ;
8 [label="gini = 0.0\nsamples = 278\nvalue = [0, 278]\nclass = fake", fillcolor="#399de5"] ;
6 -> 8 ;
9 [label="statuses_count <= 1451.5\ngini = 0.17\nsamples = 32\nvalue = [3, 29]\nclass = fake", fillcolor="#4da7e8"] ;
5 -> 9 ;
10 [label="gini = 0.375\nsamples = 8\nvalue = [2, 6]\nclass = fake", fillcolor="#7bbeee"] ;
9 -> 10 ;
11 [label="gini = 0.08\nsamples = 24\nvalue = [1, 23]\nclass = fake", fillcolor="#42a1e6"] ;
9 -> 11 ;
12 [label="friends_count <= 56.0\ngini = 0.416\nsamples = 254\nvalue = [75, 179]\nclass = fake", fillcolor="#8cc6f0"] ;
0 -> 12 [labeldistance=2.5, labelangle=-45, headlabel="False"] ;
13 [label="followers_count <= 266.0\ngini = 0.075\nsamples = 51\nvalue = [2, 49]\nclass = fake", fillcolor="#41a1e6"] ;
12 -> 13 ;
14 [label="followers_count <= 185.5\ngini = 0.147\nsamples = 25\nvalue = [2, 23]\nclass = fake", fillcolor="#4aa6e7"] ;
13 -> 14 ;
15 [label="gini = 0.0\nsamples = 14\nvalue = [0, 14]\nclass = fake", fillcolor="#399de5"] ;
14 -> 15 ;
16 [label="gini = 0.298\nsamples = 11\nvalue = [2, 9]\nclass = fake", fillcolor="#65b3eb"] ;
14 -> 16 ;
17 [label="gini = 0.0\nsamples = 26\nvalue = [0, 26]\nclass = fake", fillcolor="#399de5"] ;
13 -> 17 ;
18 [label="friends_count <= 584.5\ngini = 0.461\nsamples = 203\nvalue = [73, 130]\nclass = fake", fillcolor="#a8d4f4"] ;
12 -> 18 ;
19 [label="followers_count <= 215.5\ngini = 0.497\nsamples = 113\nvalue = [61, 52]\nclass = real", fillcolor="#fbece2"] ;
18 -> 19 ;
20 [label="friends_count <= 150.5\ngini = 0.483\nsamples = 49\nvalue = [20, 29]\nclass = fake", fillcolor="#c2e1f7"] ;
19 -> 20 ;
21 [label="gini = 0.444\nsamples = 21\nvalue = [14, 7]\nclass = real", fillcolor="#f2c09c"] ;
20 -> 21 ;
22 [label="gini = 0.337\nsamples = 28\nvalue = [6, 22]\nclass = fake", fillcolor="#6fb8ec"] ;
20 -> 22 ;
23 [label="statuses_count <= 53500.5\ngini = 0.46\nsamples = 64\nvalue = [41, 23]\nclass = real", fillcolor="#f4c8a8"] ;
19 -> 23 ;
24 [label="gini = 0.417\nsamples = 54\nvalue = [38, 16]\nclass = real", fillcolor="#f0b68c"] ;
23 -> 24 ;
25 [label="gini = 0.42\nsamples = 10\nvalue = [3, 7]\nclass = fake", fillcolor="#8ec7f0"] ;
23 -> 25 ;
26 [label="friends_count <= 1554.5\ngini = 0.231\nsamples = 90\nvalue = [12, 78]\nclass = fake", fillcolor="#57ace9"] ;
18 -> 26 ;
27 [label="statuses_count <= 14788.5\ngini = 0.346\nsamples = 45\nvalue = [10, 35]\nclass = fake", fillcolor="#72b9ec"] ;
26 -> 27 ;
28 [label="gini = 0.165\nsamples = 22\nvalue = [2, 20]\nclass = fake", fillcolor="#4da7e8"] ;
27 -> 28 ;
29 [label="gini = 0.454\nsamples = 23\nvalue = [8, 15]\nclass = fake", fillcolor="#a3d1f3"] ;
27 -> 29 ;
30 [label="followers_count <= 2382.0\ngini = 0.085\nsamples = 45\nvalue = [2, 43]\nclass = fake", fillcolor="#42a2e6"] ;
26 -> 30 ;
31 [label="gini = 0.0\nsamples = 21\nvalue = [0, 21]\nclass = fake", fillcolor="#399de5"] ;
30 -> 31 ;
32 [label="gini = 0.153\nsamples = 24\nvalue = [2, 22]\nclass = fake", fillcolor="#4ba6e7"] ;
30 -> 32 ;
}