digraph Tree {
node [shape=box, style="filled, rounded", color="black", fontname="helvetica"] ;
edge [fontname="helvetica"] ;
0 [label="followers_count <= 37.5\ngini = 0.302\nsamples = 227\nvalue = [185, 42]\nclass = real", fillcolor="#eb9e66"] ;
1 [label="statuses_count <= 2.5\ngini = 0.206\nsamples = 43\nvalue = [5, 38]\nclass = fake", fillcolor="#53aae8"] ;
0 -> 1 [labeldistance=2.5, labelangle=45, headlabel="True"] ;
2 [label="followers_count <= 7.5\ngini = 0.056\nsamples = 35\nvalue = [1, 34]\nclass = fake", fillcolor="#3fa0e6"] ;
1 -> 2 ;
3 [label="gini = 0.198\nsamples = 9\nvalue = [1, 8]\nclass = fake", fillcolor="#52a9e8"] ;
2 -> 3 ;
4 [label="gini = 0.0\nsamples = 26\nvalue = [0, 26]\nclass = fake", fillcolor="#399de5"] ;
2 -> 4 ;
5 [label="gini = 0.5\nsamples = 8\nvalue = [4, 4]\nclass = real", fillcolor="#ffffff"] ;
1 -> 5 ;
6 [label="friends_count <= 61.0\ngini = 0.043\nsamples = 184\nvalue = [180, 4]\nclass = real", fillcolor="#e6843d"] ;
0 -> 6 [labeldistance=2.5, labelangle=-45, headlabel="False"] ;
7 [label="gini = 0.375\nsamples = 8\nvalue = [6, 2]\nclass = real", fillcolor="#eeab7b"] ;
6 -> 7 ;
8 [label="friends_count <= 2381.5\ngini = 0.022\nsamples = 176\nvalue = [174, 2]\nclass = real", fillcolor="#e5823b"] ;
6 -> 8 ;
9 [label="gini = 0.0\nsamples = 168\nvalue = [168, 0]\nclass = real", fillcolor="#e58139"] ;
8 -> 9 ;
10 [label="gini = 0.375\nsamples = 8\nvalue = [6, 2]\nclass = real", fillcolor="#eeab7b"] ;
8 -> 10 ;
}